// #### Created By: http://www.cufonfonts.com ####
Cufon.registerFont({"w":748,"face":{"font-family":"GROBOLD","font-weight":500,"font-stretch":"normal","units-per-em":"1000","panose-1":"2 0 6 3 3 0 0 2 0 4","ascent":"800","descent":"-200","cap-height":"17","bbox":"-60 -985 1018 201.229","underline-thickness":"20","underline-position":"-123","unicode-range":"U+0020-U+201D"},"glyphs":{" ":{"w":300},"%":{"d":"296,-512v159,79,268,-170,160,-298v-40,-48,-134,-24,-167,20v-72,55,-79,235,7,278xm352,-724v32,-23,54,10,54,47v0,37,-36,119,-72,75v-25,-31,-6,-105,18,-122xm534,-9v159,79,267,-168,159,-297v-40,-48,-133,-25,-167,19v-74,55,-78,235,8,278xm590,-220v32,-23,54,8,54,46v0,37,-36,120,-72,76v-25,-30,-7,-105,18,-122xm641,-839r92,24r-401,820r-76,-33"},"&":{"d":"565,-84v-116,115,-443,138,-541,-10v-44,-67,-44,-201,10,-258v34,-35,76,-65,129,-80v-45,-36,-82,-76,-86,-147v-9,-164,123,-230,272,-243v179,-16,343,66,302,256v-15,72,-66,127,-131,153r78,68v47,-35,77,-85,113,-131r165,159r-117,105r86,67r-213,150xm381,-650v-41,1,-62,57,-31,90v10,11,19,20,29,25v31,-17,71,-66,34,-103v-9,-9,-20,-12,-32,-12xm292,-311v-18,15,-44,31,-42,65v5,74,110,59,151,27","w":845},"'":{"d":"215,-922r-119,153r-42,-14r84,-202","w":255},"(":{"d":"315,75v-121,-106,-233,-243,-233,-433v0,-132,37,-222,88,-336v31,-67,77,-140,136,-217r50,42v-98,156,-177,296,-177,511v0,165,87,294,185,398","w":404},")":{"d":"88,-911v121,106,233,243,233,433v0,133,-38,221,-89,336v-31,67,-76,140,-135,217r-50,-42v98,-157,177,-295,177,-511v0,-165,-87,-294,-185,-398","w":386},"+":{"d":"713,-477r-19,208r-232,2r-11,190r-189,19r2,-208r-213,1r19,-189r195,-7r2,-240r222,-32r-15,265","w":772},",":{"d":"190,-53r-119,154r-42,-14r84,-203","w":237},"-":{"d":"75,-403r317,-14r-10,134r-316,-5","w":456},".":{"d":"40,-31r7,-85r105,6r-20,105","w":219},"\/":{"d":"408,-839r91,24r-401,820r-75,-33","w":516},"0":{"d":"658,-568v54,258,-44,503,-246,576v-105,38,-225,8,-288,-50v-103,-96,-153,-338,-78,-504v53,-117,137,-211,258,-258v135,-51,261,18,308,109v19,37,36,79,46,127xm315,-204v116,-14,153,-191,111,-305v-20,-55,-72,-66,-118,-29v-46,36,-79,115,-72,206v5,72,25,121,79,128","w":676},"1":{"d":"95,-488r-98,-126r197,-187r276,-28r-38,842r-245,-32r-3,-544","w":518},"2":{"d":"522,-809v82,48,166,143,146,251v-29,156,-184,232,-301,311r271,-31r-6,253r-593,30r-1,-153v-9,-49,22,-85,48,-118v88,-109,226,-186,310,-297v23,-31,-5,-49,-41,-38v-84,25,-171,89,-231,140r-134,-193v98,-93,192,-161,320,-189v86,-19,161,3,212,34","w":674},"3":{"d":"502,-456v92,53,152,134,130,270v-17,110,-69,156,-162,192v-88,33,-176,16,-272,-18v-60,-21,-128,-56,-203,-107r147,-210v70,49,111,76,187,83v52,4,64,-61,33,-88v-29,-26,-83,-30,-151,-23r11,-171v69,6,110,2,132,-28v13,-62,-59,-73,-122,-52v-29,10,-65,28,-108,58r-98,-182v174,-160,588,-154,588,108v0,79,-47,127,-112,168","w":638},"4":{"d":"330,-837r245,76r-374,352r102,0r3,-58r230,0r-10,59r89,-16r-14,232r-89,1r-11,183r-255,11r18,-192r-248,19r-21,-333","w":603},"5":{"d":"3,-234v136,34,263,6,293,-97v1,-79,-143,-53,-209,-39v-20,5,-38,11,-53,18r34,-431r475,-23r5,199r-304,-3r-25,71v190,-42,391,51,343,264v-47,208,-236,298,-514,275","w":571},"6":{"d":"305,-522v136,-65,264,74,273,180v15,169,-107,266,-224,324v-89,43,-209,42,-270,-20v-53,-54,-107,-136,-100,-252v8,-138,65,-235,143,-342v51,-69,120,-143,208,-222r153,148v-69,54,-131,120,-183,184xm203,-234v27,71,138,22,157,-31v28,-76,-42,-124,-107,-84v-34,21,-69,64,-50,115","w":561},"7":{"d":"560,-825r-89,306r65,-2r-32,182r-71,3r-82,340r-275,-32r94,-300r-80,3r11,-178r125,-7r39,-95r-259,31r-14,-220","w":539},"8":{"d":"518,-458v80,54,97,212,42,310v-61,111,-224,200,-401,152v-109,-29,-191,-138,-157,-277v15,-60,55,-108,100,-144v-69,-61,-75,-189,-20,-272v78,-117,356,-211,464,-63v38,52,51,144,20,216v-11,26,-26,53,-48,78xm284,-512v65,8,114,-122,44,-140v-61,-16,-107,77,-72,128v7,10,17,12,28,12xm226,-160v70,62,173,-55,132,-140v-27,-55,-109,-23,-129,20v-22,28,-29,97,-3,120","w":604},"9":{"d":"261,-298v-124,60,-242,-54,-265,-146v-43,-171,73,-274,182,-342v81,-50,234,-69,302,4v52,55,108,136,102,252v-7,138,-65,235,-143,342v-51,69,-120,143,-208,222r-154,-149v68,-54,132,-119,184,-183xm363,-586v-29,-71,-138,-22,-158,31v-28,75,42,124,107,83v33,-21,71,-65,51,-114","w":568},":":{"d":"7,-31r6,-85r105,6r-20,105xm46,-375r7,-94r116,7r-22,116","w":178},";":{"d":"149,-53r-119,154r-42,-14r84,-203xm85,-194r6,-85r105,6r-19,105","w":209},"=":{"d":"22,-213r643,-23r-19,208r-643,4xm45,-520r643,-23r-19,207r-642,5","w":693},"?":{"d":"474,-84v-22,98,-178,159,-276,94v-36,-24,-37,-90,-6,-124v43,-76,238,-120,281,-14v6,14,5,29,1,44xm1,-735v107,-102,207,-178,343,-211v164,-40,281,38,342,137v79,127,-11,248,-85,313v-116,103,-285,172,-389,282v-17,18,-21,38,-16,56r-164,-127v-12,-50,23,-84,52,-114v100,-105,257,-176,357,-280v21,-22,7,-44,-19,-40v-105,17,-181,87,-251,143","w":725},"@":{"d":"384,-619v63,0,101,15,129,57r8,-34r105,0r-58,280v-4,21,-6,49,18,47v87,-34,115,-190,81,-298v-52,-166,-363,-196,-477,-64v-46,54,-81,127,-81,224v0,236,185,341,430,299v33,-6,58,-14,75,-25r-16,100v-76,56,-244,52,-344,9v-143,-61,-251,-185,-251,-383v0,-196,106,-323,247,-385v140,-62,324,-23,408,61v61,61,118,132,119,244v1,139,-61,247,-147,295v-62,35,-136,20,-148,-41v-29,30,-74,64,-136,60v-108,-6,-179,-82,-179,-194v0,-141,75,-252,217,-252xm291,-382v-9,91,104,127,153,59v40,-55,41,-186,-49,-179v-66,4,-98,55,-104,120","w":782},"A":{"d":"395,-873r505,768r-314,119r-84,-140r-210,7r-41,150r-301,-98xm344,-278r119,-21r-50,-136","w":850},"B":{"d":"32,-781v172,-30,311,-59,472,-35v83,35,185,113,130,235v-14,31,-40,66,-81,104v111,55,195,148,143,288v-26,69,-69,125,-122,163v-134,56,-344,47,-535,26xm294,-487v62,8,93,-29,98,-81v-5,-44,-49,-45,-94,-24xm382,-210v87,-18,77,-143,-20,-126v-20,3,-46,11,-78,26r13,105v37,3,64,-1,85,-5","w":689},"C":{"d":"718,-674r-175,215v-54,-53,-88,-89,-165,-81v-62,21,-88,95,-103,161v10,73,51,159,155,119v35,-13,79,-42,130,-89r195,208v-85,123,-297,214,-501,161v-186,-48,-313,-236,-256,-476v36,-153,122,-283,243,-350v57,-31,154,-52,241,-28v97,27,171,80,236,160"},"D":{"d":"42,-782v121,-23,210,-39,268,-46v74,-8,166,-24,235,-4v166,48,245,241,191,448v-47,181,-163,326,-336,384v-95,32,-219,15,-342,-1xm479,-423v0,-67,-22,-135,-93,-131v-21,1,-46,15,-76,39r-10,287v103,-23,179,-87,179,-195","w":720},"E":{"d":"35,-774r552,-41r-31,253r-251,11r-1,48r182,-13r-21,175r-167,13r-2,55r286,-27r-5,276r-535,29","w":592},"F":{"d":"37,-775r553,-40r-31,260r-252,10r-11,78r210,-13r14,210r-211,13r-10,256r-255,6","w":546},"G":{"d":"270,-429v-45,88,-23,238,92,227v72,-6,127,-47,152,-102r-142,27r16,-161r436,-55v17,187,-78,314,-166,413v-83,93,-279,149,-440,94v-161,-55,-267,-250,-211,-464v52,-202,200,-352,421,-380v153,-19,260,54,346,137r-187,197v-23,-65,-117,-80,-190,-49v-55,23,-100,62,-127,116","w":815},"H":{"d":"13,-787r292,-28r-35,367r148,-11r12,-349r285,-14r-81,772r-232,28r13,-220r-105,15r-10,230r-249,5","w":721},"I":{"d":"342,-822r-41,809r-263,30r10,-804","w":371},"J":{"d":"536,-826r12,446v-5,79,4,159,-26,216v-53,101,-131,192,-286,188v-69,-2,-160,-26,-196,-82v-32,-50,-58,-121,-42,-219r220,-70v-10,51,-18,91,-4,127v15,39,54,4,62,-23v4,-15,8,-32,7,-54r-33,-479","w":581},"K":{"d":"678,-633r-279,259r246,207r-140,210r-194,-183r-2,127r-262,30r-16,-804r293,-35r-3,181r161,-223","w":636},"L":{"d":"40,-782r301,-42r-26,563r245,-51r12,281r-525,53","w":560},"M":{"d":"211,-865r245,309r236,-244r245,674r-241,197r-109,-325r-136,238r-164,-252r-97,296r-233,-151","w":883},"N":{"d":"51,-815r382,317r9,-331r298,20r-46,763r-383,-191r14,236r-287,18","w":762},"O":{"d":"788,-560v40,255,-70,446,-236,541v-88,51,-237,73,-352,33v-160,-56,-265,-248,-215,-464v46,-199,193,-331,389,-380v227,-56,383,71,414,270xm430,-236v77,-51,146,-264,34,-318v-104,-50,-196,40,-230,124v-37,92,-18,232,85,232v46,0,81,-18,111,-38","w":764},"P":{"d":"318,-812v74,-7,168,-20,230,2v103,37,168,129,142,272v-37,204,-182,338,-388,382r-4,180r-242,-25r-16,-781v127,-15,219,-24,278,-30xm275,-398v69,-16,123,-55,147,-112v5,-40,-13,-71,-60,-68v-19,1,-45,7,-77,20","w":640},"Q":{"d":"371,-830v277,-65,439,123,423,404v-7,121,-52,220,-119,300r46,45r-148,147r-52,-71v-120,58,-313,48,-413,-29v-82,-63,-149,-216,-136,-346v25,-240,188,-400,399,-450xm486,-310v61,-88,41,-268,-85,-256v-135,13,-221,162,-173,307v18,53,81,75,145,52r-23,-31r84,-123","w":774},"R":{"d":"692,-143r-155,175r-243,-179r-3,171r-242,-25r-16,-781r366,-39v212,-31,338,114,271,313v-32,94,-103,176,-187,228xm415,-510v6,-40,-13,-71,-60,-68v-19,1,-44,7,-76,20r-10,160v69,-16,123,-54,146,-112","w":670},"S":{"d":"334,-606v-42,0,-88,9,-93,47v16,35,90,27,127,40v120,42,235,92,240,242v7,207,-152,289,-352,299v-111,5,-201,-30,-279,-65r76,-214v66,28,160,72,245,39v28,-11,34,-51,6,-63v-124,-54,-295,-77,-295,-246v0,-236,207,-325,453,-293v41,6,80,16,116,31r-59,231v-61,-25,-103,-48,-185,-48","w":591},"T":{"d":"518,-595r-120,14r0,563r-284,35r15,-571r-132,13r7,-246r540,-46","w":521},"U":{"d":"618,-790r13,471v4,190,-69,311,-231,342v-272,53,-400,-89,-392,-368r13,-481r286,50r-26,470v-17,68,44,141,74,62v9,-25,16,-69,13,-112r-21,-384","w":644},"V":{"d":"237,-836r147,352r171,-344r249,144r-440,755r-412,-739"},"W":{"d":"-42,-729r272,-118r106,327r181,-278r151,262r120,-358r230,165r-248,735r-249,-255r-257,324","w":985},"X":{"d":"213,-837r196,201r185,-201r224,168r-237,246r242,247r-191,205r-227,-285r-182,294r-228,-191r228,-256r-233,-260","w":806},"Y":{"d":"155,-832r177,278r192,-278r245,168r-305,394r-3,288r-269,-36r0,-294r-252,-352","w":701},"Z":{"d":"33,31r243,-589r-292,19r56,-262r743,-24r-339,563r376,-46r-50,291","w":817},"a":{"d":"100,-587v197,-53,468,-38,461,192r-11,378r-201,17v-2,-21,4,-51,-2,-68v-32,47,-86,68,-158,68v-123,0,-198,-81,-198,-206v0,-120,85,-186,206,-190v59,-2,99,21,131,44v23,-150,-172,-107,-267,-76xm312,-214v-15,-71,-176,-41,-165,26v12,71,180,45,165,-26","w":603},"b":{"d":"254,-566v60,-42,169,-57,245,-15v92,50,165,142,165,275v0,194,-117,303,-306,311v-64,3,-118,-29,-162,-50r0,43r-158,0r-6,-806r231,-18xm237,-297v-21,115,159,123,203,45v43,-76,-28,-159,-120,-128v-41,14,-75,39,-83,83","w":640},"c":{"d":"542,-71v-73,71,-238,101,-358,53v-107,-43,-191,-132,-191,-276v0,-202,130,-308,332,-314v90,-3,161,38,212,70r-132,173v-37,-33,-135,-44,-167,1v-25,22,-37,64,-18,101v25,49,76,66,135,38r51,-26","w":528},"d":{"d":"267,-602v48,0,91,12,118,37r-9,-238r230,-18r-4,814r-196,13v-2,-18,4,-43,-2,-57v-43,62,-166,79,-248,41v-98,-45,-165,-138,-165,-281v0,-182,93,-311,276,-311xm191,-290v-10,88,112,115,171,64v33,-28,46,-97,10,-129v-30,-39,-115,-34,-148,0v-17,17,-30,36,-33,65","w":664},"e":{"d":"274,-191v74,28,159,-5,197,-46r99,163v-91,74,-260,114,-396,60v-105,-41,-185,-131,-185,-271v0,-195,111,-312,301,-318v141,-4,240,83,283,187xm288,-431v-69,0,-107,77,-81,142r149,-113v-17,-20,-35,-28,-68,-29","w":572},"f":{"d":"81,-576v-5,-174,116,-261,293,-230r26,166v-58,-5,-103,9,-102,64r86,0r0,172r-86,0r6,396r-224,18r1,-414r-69,0r32,-172r37,0","w":416},"g":{"d":"562,-19v2,250,-369,251,-563,179r97,-176v44,14,89,28,144,28v48,0,90,-10,90,-59v0,-90,-163,-69,-219,-37r19,-60v-81,-40,-139,-108,-139,-222v0,-153,106,-243,270,-246v47,0,80,7,114,18r17,-105r160,69r-52,102v38,37,65,89,65,158v0,94,-41,144,-101,185v65,37,98,92,98,166xm201,-340v19,80,171,44,151,-32v-17,-79,-171,-42,-151,32","w":592},"h":{"d":"294,-398v-25,0,-47,17,-46,43r0,364r-210,-18r-7,-788r224,-18r-7,281r2,0v30,-40,69,-62,132,-62v117,0,175,81,173,199r-6,387r-211,18r0,-365v0,-23,-19,-41,-44,-41","w":587},"i":{"d":"40,-567r223,-18r-11,577r-212,18r0,-577xm39,-820r229,-10r-12,176r-218,16","w":305},"j":{"d":"4,10v71,3,114,-14,114,-84r0,-490r217,-18r0,526v-1,173,-92,260,-276,249xm334,-652r-218,17r1,-183r229,-10","w":392},"k":{"d":"29,-795r227,-18r-20,422r2,0r95,-203r221,18r-130,252r150,231r-208,103r-130,-251r-2,0r8,233r-208,18","w":578},"l":{"d":"35,-795r226,-18r-9,805r-210,18","w":299},"m":{"d":"540,-537v40,-50,137,-80,212,-45v67,30,106,97,107,190r6,381r-217,18r6,-363v0,-27,-23,-43,-51,-43v-28,0,-51,22,-52,46r6,342r-217,18r4,-361v2,-28,-24,-46,-53,-45v-25,0,-52,18,-51,46r10,361r-210,-18r-12,-569r204,-18v2,29,-4,67,2,92v40,-52,85,-92,170,-92v68,0,103,21,136,60","w":891},"n":{"d":"330,-382v-28,-25,-86,-9,-85,31r4,361r-213,-15r-8,-569r208,-17r0,77r4,0v37,-50,71,-77,143,-77v117,0,173,82,173,198r0,387r-216,18r3,-364v1,-12,-3,-22,-13,-30","w":591},"o":{"d":"392,-599v166,30,270,189,224,383v-36,155,-190,251,-393,215v-161,-28,-270,-186,-223,-383v37,-155,189,-252,392,-215xm204,-332v-35,85,44,159,137,116v48,-22,90,-61,65,-128v-18,-49,-74,-71,-137,-43v-31,13,-55,31,-65,55","w":617},"p":{"d":"490,-11v-74,37,-189,35,-242,-19r6,199r-211,18r-11,-767r207,-18r0,68v39,-42,75,-68,149,-68v134,0,212,90,247,194v59,172,-25,334,-145,393xm236,-246v46,103,253,23,199,-95v-20,-45,-79,-64,-138,-36v-47,22,-89,69,-61,131","w":639},"q":{"d":"248,-602v73,0,110,26,149,68r0,-68r208,18r-11,767r-212,-18r6,-199v-53,53,-169,54,-242,18v-119,-58,-203,-225,-145,-392v36,-104,113,-194,247,-194xm401,-274v37,-87,-58,-145,-140,-106v-46,22,-85,68,-60,130v18,44,80,64,138,35v31,-15,51,-34,62,-59","w":637},"r":{"d":"381,-382v-85,-10,-138,29,-138,113r0,257r-210,18r-6,-586r203,-18v2,36,-4,79,2,111v19,-90,95,-123,201,-108","w":418},"s":{"d":"14,-198v35,10,70,19,114,18v36,-1,84,4,87,-30v-10,-39,-67,-38,-103,-54v-60,-26,-106,-70,-103,-158v5,-127,103,-179,241,-181v62,0,121,10,171,21r0,176v-33,-8,-62,-14,-101,-14v-30,1,-74,0,-78,28v10,42,69,39,107,56v61,27,107,69,107,159v0,202,-266,208,-442,166r0,-187","w":446},"t":{"d":"281,-237v-9,56,40,54,83,46r-35,198v-153,17,-265,-29,-265,-182r0,-237r-55,1r6,-173r47,0r0,-66r217,-98r0,164r81,-12r-11,184r-68,0r0,175","w":371},"u":{"d":"258,-194v26,20,80,13,79,-34r-6,-353r230,-18r-15,595r-184,8v-2,-29,4,-67,-2,-92v-23,68,-78,101,-162,101v-103,0,-168,-66,-168,-174r0,-420r223,-18r-6,370v-1,16,3,28,11,35","w":591},"v":{"d":"193,-603r57,395r2,0r66,-395r217,17r-138,577r-288,17r-131,-594","w":513},"w":{"d":"259,-327r57,-259r157,-12r59,274r2,0r59,-283r218,18r-154,577r-207,16r-56,-279r-2,0r-57,263r-205,17r-156,-594r224,-18r59,280r2,0","w":788},"x":{"d":"275,-430r2,0r46,-168r231,18r-119,275r139,293r-240,17r-57,-181r-2,0r-58,181r-236,-17r133,-293r-124,-275r232,-18","w":557},"y":{"d":"272,-368r49,-220r206,18r-214,754r-226,-18r86,-235r-188,-492r218,-27r67,220r2,0","w":502},"z":{"d":"54,-580r417,0r-168,369r178,0r-43,208r-453,0r170,-369r-143,0","w":486},"\u2014":{"d":"26,-458r643,-23r-19,207r-643,5","w":943},"\u201c":{"d":"254,-975r84,202r-42,14r-119,-153xm111,-975r84,202r-42,14r-119,-153","w":429},"\u201d":{"d":"241,-912r-119,153r-42,-14r84,-202xm383,-912r-118,153r-42,-14r83,-202","w":417},"$":{"d":"362,-615v-42,0,-90,7,-94,46v17,36,90,28,127,41v121,41,235,93,241,242v7,171,-106,248,-245,284r0,100r-191,7r26,-94v-79,-6,-162,-35,-221,-64r76,-213v66,28,158,72,243,39v28,-11,35,-51,8,-63v-122,-54,-291,-77,-295,-246v-4,-166,100,-250,233,-287r0,-98r191,-7r-25,93v62,4,121,16,169,37r-59,231v-61,-24,-102,-48,-184,-48","w":641},"!":{"d":"607,-65v25,126,-174,126,-243,67v-34,-29,-75,-65,-58,-126v24,-85,181,-73,240,-24v27,22,54,47,61,83xm612,-203v-57,-45,-187,-61,-263,-23r53,-692r296,-12","w":774},"#":{"d":"571,-637r0,-20v-50,8,-27,-36,-32,-70r28,0v5,22,-15,66,18,58v32,0,12,-35,17,-58r29,0v-2,36,12,62,-32,65r0,19xm421,-727r27,0r0,104v0,8,5,9,17,6v11,-3,17,-7,17,-14r0,-96r28,0v-4,37,11,87,-12,107v-12,10,-77,37,-77,4r0,-111xm384,-718v-30,7,-70,33,-70,68v0,23,17,41,42,49r0,-51r28,-4r0,76v-53,5,-98,-21,-98,-68v0,-43,50,-79,98,-85r0,15xm884,-202r-42,-25r14,-26v10,5,-3,15,-6,22r12,7v5,-5,7,-21,15,-16r-10,19r16,9v5,-5,8,-25,15,-16xm809,-173r33,28r-5,5r-32,-28v-4,2,-7,12,-12,7r21,-25v6,4,-3,9,-5,13xm773,-85v21,-34,-55,6,-27,-37v5,-3,10,-4,15,-2v0,9,-22,6,-15,18v11,6,39,-13,37,14v-1,10,-18,21,-29,11v4,-9,9,2,19,-4xm689,-83r22,43r-6,4r-22,-43xm608,-29r25,-8v0,-7,-10,-19,0,-20r15,46v-11,6,-9,-13,-13,-20r-25,7r7,23r-7,1r-14,-45r6,-3xm517,-34v14,-2,31,-3,31,11v1,10,-7,16,-21,16v-1,8,6,22,-5,21xm525,-30v0,10,0,22,13,15v10,-9,-1,-16,-13,-15xm452,-1v-14,-2,-29,-4,-33,8r-7,0r32,-47r20,54v-10,1,-9,-9,-12,-15xm450,-7r-8,-20r-11,18xm350,-33r9,26v-15,0,-9,-22,-18,-29v-4,7,-4,25,-13,17r16,-45v11,3,27,10,23,23v-3,7,-8,10,-17,8xm362,-43v-3,-18,-17,-12,-19,3v4,6,18,5,19,-3xm285,-79v0,-18,-27,-28,-38,-12v-13,19,13,42,29,26v-5,-4,-16,-6,-9,-12v5,4,16,8,17,13v-10,20,-45,7,-48,-12v-4,-23,22,-38,42,-25v7,5,12,13,13,22r-6,0xm376,-287r62,-24r0,-243r44,-19r0,244r54,-22r0,-245r43,-17r0,358r-43,15r0,-74r-54,21r0,74r-44,18r0,-73r-37,15xm934,-679r43,0r0,222v0,37,-16,59,-48,68r0,80r-43,0r0,-79v-32,-8,-48,-29,-48,-64r0,-222r42,-3r0,150v7,29,10,59,10,94v19,14,44,2,44,-24r0,-222xm752,-411v57,-6,44,54,45,107v14,-30,26,-65,30,-103v1,5,3,9,6,13v-33,190,-201,319,-430,274v-28,-6,-54,-18,-79,-31r5,-6v91,57,261,47,345,-11v50,-35,94,-79,122,-134r-42,5v-2,-23,4,-56,-4,-72v-14,-5,-36,5,-51,6r0,75r-43,11r0,-75r-37,9r-25,-29r62,-18r0,-264v137,-7,184,156,96,243xm699,-401v56,-35,78,-147,18,-189v-8,-6,-11,-9,-18,-12r0,201xm267,-199v1,19,9,23,26,20v18,-4,27,-17,27,-38r0,-292r43,-16r0,293v0,47,-30,81,-70,92v-44,13,-69,-10,-68,-51r0,-293r42,-9r0,294xm823,-503v-34,-191,-245,-324,-463,-239v-124,48,-220,163,-204,339v18,28,33,63,33,106v6,18,23,25,22,50v-9,-12,-16,-24,-23,-35v-1,16,-4,31,-9,45v9,15,21,27,32,40r0,28v-14,-13,-28,-29,-42,-47v-5,11,-12,21,-20,31v33,9,40,29,40,67v0,59,-66,56,-127,54r0,-81r-34,0r-21,-40r55,0r0,-286v12,3,18,5,31,13v12,-173,113,-284,246,-340v47,-19,98,-28,152,-28v150,0,268,77,332,171r0,38v-65,-106,-167,-189,-332,-189v-174,0,-288,96,-347,220v-20,44,-30,90,-31,140v12,9,24,20,33,31v-8,-173,86,-280,210,-334v42,-18,87,-26,135,-26v177,0,284,102,332,239r0,33xm150,-123v5,-28,-25,-22,-49,-22r0,39v21,-1,51,7,49,-17xm101,-367v16,22,33,53,33,95v-15,-28,-26,-58,-33,-90r0,177v42,-28,65,-111,37,-168v-12,-24,-22,-36,-37,-50r0,36xm296,-130v53,31,116,52,195,52v205,0,330,-123,372,-295v1,1,4,2,8,3r0,46v-61,180,-254,312,-496,249v-37,-10,-71,-27,-103,-46","w":981},"\u00a0":{"w":300}}});
